{"model_type": "MLPClassifier", "architecture": [14, 20, 12, 8, 1], "activation": "relu", "output_activation": "logistic", "scaler": {"mean": [0.71936057, 0.47246892, 0.45115453, 0.5026643, 0.48667851, 0.28596803, 0.42095915, 0.63410302, 0.3250444, 0.57015986, 29.89698046, 0.52220249, 0.10834813, 0.13676732], "scale": [0.44931163, 0.49924146, 0.4976084, 0.4999929, 0.49982251, 0.45187422, 0.49371302, 0.48168079, 0.46839144, 0.49505312, 17.73557628, 0.49950681, 0.31081959, 0.34360154]}, "layers": [{"W": [[-0.18938738, 0.03942921, -0.3211786, -0.04667249, 0.27971222, -0.33722056, 0.22521471, 0.31514566, -0.12853326, -0.15228804, 0.12960941, 0.09216301, 0.35325747, 0.16934787], [0.50637186, -0.26066002, 0.10775835, -0.06647061, 0.23215712, 0.24629389, 0.42934288, -0.07356124, 0.25759763, -0.18298771, -0.31766729, -0.00786149, 0.44168767, 0.39134943], [0.09961173, -0.25755359, -0.49676734, 0.168587, -0.26540154, -0.23593864, -0.24288465, -0.05078881, -0.01364676, 0.22138758, -0.3322916, -0.2439659, 0.30463072, -0.34447118], [-0.03319756, -0.19245651, 0.31711701, -0.19325336, -0.46558659, -0.10053654, -0.39977665, -0.2306503, -0.07542516, 0.2228438, 0.30993774, -0.07499986, -0.09824255, 0.05175811], [-0.42871534, -0.0929083, -0.30389125, -0.23560041, -0.25404391, 0.29010078, -0.32874418, -0.24074991, -0.4747529, -0.27895784, -0.00406179, -0.23158297, -0.51895638, 0.27533257], [-0.43902352, 0.25523066, 0.08723856, 0.07099736, -0.21928189, -0.24598922, -0.14129346, -0.53796692, 0.18568984, 0.01982973, -0.48872475, -0.15204881, 0.26496386, 0.21377943], [-0.27306037, -0.13124092, -0.07188396, -0.21082695, 0.30284381, 0.00839777, 0.38284341, 0.16512378, -0.02981223, 0.35755037, -0.32691701, 0.33374869, -0.09708518, 0.14276057], [0.44829731, 0.11093137, 0.1293476, 0.3327374, 0.24136986, 0.30283041, 0.35574388, 0.07669936, -0.13831362, 0.15910196, 0.13888172, -0.13397115, 0.34224219, 0.21206173], [-0.00548725, -0.00813236, -0.07664116, -0.47361741, 0.27440524, -0.34453444, -0.49633364, -0.50626028, -0.52001631, -0.11385416, -0.52856639, 0.44261987, 0.29560948, -0.0674563], [0.19184201, -0.34221526, -0.16756267, 0.50260874, -0.0386783, -0.37600099, 0.10128221, -0.18509521, 0.06022658, -0.34912606, -0.37129927, 0.20570598, 0.2788523, -0.23422044], [-0.31222439, 0.11695148, 0.48182104, 0.28945841, -0.21733439, -0.10877464, 0.04777685, 0.42145469, 0.24555758, -0.2742183, 0.0090543, 0.27784495, -0.08826595, 0.25070994], [0.31367863, -0.23077167, 0.27228557, -0.19382302, 0.20345562, -0.22923358, -0.18108269, -0.14165557, -0.36360399, 0.28174955, 0.14706642, -0.01577149, -0.04764084, 0.23613687], [0.39514034, -0.27971968, 0.47348589, -0.40620659, 0.29606786, 0.43781303, -0.23608502, -0.18355148, 0.10802098, 0.44249541, 0.14056849, 0.05976478, 0.27435017, 0.2666858], [-0.08857834, 0.42788389, 0.41426199, 0.3306968, 0.19000089, 0.37557447, -0.03395045, 0.09063452, -0.08608191, 0.25975485, -0.14539408, -0.04405548, -0.03800025, 0.24195231], [-0.10903458, 0.45712198, 0.20341632, 0.30444532, 0.36268322, 0.24273245, 0.48634795, 0.4808146, 0.27787463, 0.02809115, 0.20998762, -0.22478691, -0.2023608, 0.044041], [-0.41638197, 0.15834093, 0.37310538, 0.20800827, -0.0930354, 0.24190731, -0.08649271, -0.31853517, -0.39041282, -0.22362561, -0.32725702, 0.14650678, -0.05609569, 0.04231576], [-0.1361826, -0.12529967, -0.33471596, 0.23197732, 0.03803699, 0.23318561, -0.00224512, 0.14513712, 0.18729077, 0.21269629, -0.18532617, -0.26314091, 0.36068222, 0.17544097], [-0.02255824, -0.45648738, -0.37681328, -0.48555568, -0.17279776, -0.37336033, 0.07330619, 0.21070197, -0.23477588, 0.21882019, 0.19405968, -0.42216095, 0.08725555, 0.09149856], [-0.15855234, 0.09327381, -0.47783662, -0.20586469, -0.48770108, 0.2493969, -0.19760929, -0.2693942, 0.27821812, 0.23396859, 0.06274576, 0.20184327, 0.04178978, 0.1124241], [-0.3012364, -0.08382526, -0.28184886, -0.39495409, -0.46500145, -0.05622992, 0.35536416, 0.22656207, -0.44604299, 0.13151136, 0.26971225, -0.28783793, -0.48874768, 0.23547897]], "b": [0.2476659, -0.01625179, 0.00250312, -0.2312049, 0.22159039, -0.30446634, 0.03067658, 0.15674501, -0.02878866, 0.16900259, -0.4527525, -0.4730992, 0.40545048, -0.06279363, -0.19609778, 0.12202411, 0.2451414, -0.09124176, 0.16693277, -0.19721576]}, {"W": [[-0.27955177, -0.39360035, 0.39794975, 0.42490727, 0.01717656, 0.02789191, -0.23743452, 0.13570044, 0.43825902, 0.46082201, 0.36780384, 0.2083446, 0.18577128, -0.47951604, -0.33910209, 0.25685867, -0.27196429, 0.28089039, -0.06243283, -0.24137377], [0.11051666, 0.53915331, 0.33027626, 0.27160244, 0.00364411, 0.14829537, 0.28502677, 0.40996851, -0.02894491, -0.29782311, 0.2720755, -0.34864494, 0.53412161, 0.11484949, 0.5446159, 0.13746047, -0.14326492, -0.22641987, 0.36545229, 0.35740115], [0.16465083, 0.36587579, 0.17309861, 0.1091452, 0.1284749, 0.07434043, -0.24469095, -0.19887961, 0.34784218, -0.01700902, -0.21766258, -0.25408827, 0.48592864, -0.40886033, -0.44357404, 0.08907941, 0.05366717, 0.47554808, 0.54993766, 0.39948638], [0.08866333, 0.27288197, 0.14871833, -0.39389685, 0.22347635, 0.02510038, -0.16563061, -0.15227181, 0.13272067, 0.36923525, 0.00788147, 0.10761413, 0.34517527, -0.20641888, 0.53018467, 0.04023718, -0.01531506, 0.20430174, -0.25118978, 0.35072036], [0.29274529, -0.08053979, -0.02018127, 0.12097078, 0.25467324, 0.50924232, 0.40129217, 0.13710664, -0.22119038, 0.48166503, -0.23696478, -0.27419574, -0.06168439, -0.24739342, -0.47732631, 0.23296812, 0.05164912, 0.49694652, 0.21332494, 0.55190998], [0.34037702, -0.36132489, -0.26466924, -0.0870748, -0.35943774, -0.1586711, -0.48526795, 0.17801884, 0.25003455, -0.01107899, 0.03778896, 0.22947164, -0.44022839, 0.036682, 0.2466875, 0.26769034, -0.43175027, 0.14294128, -0.17055721, -0.02005677], [-0.05437243, -0.20205174, -0.15822234, -0.34233081, -0.48218426, 0.31301312, 0.19938228, 0.5292977, -0.08750351, 0.10082894, -0.06669038, 0.08482276, 0.33997385, 0.34524647, 0.17495834, -0.4425593, 0.45642984, 0.00167876, 0.30523916, 0.12437598], [-0.06152674, -0.32061023, 0.29727652, 0.07317893, 0.24286332, 0.46284317, -0.14907292, -0.18128158, 0.40788533, 0.06823538, 0.41702479, -0.26967573, -0.05601272, -0.02559283, 0.31454548, -0.07713347, 0.33839162, 0.04279528, 0.32979681, 0.51342071], [0.18652873, -0.01166019, -0.49197411, -0.13641354, -0.45023464, -0.31408077, -0.38584588, -0.17348889, -0.21263736, -0.24862662, -0.12950308, -0.39463435, -0.12856422, 0.3418284, -0.42600292, 0.34627618, 0.12017217, 0.30047066, 0.23210135, 0.21861693], [-0.07862769, 0.09727239, -0.24791433, 0.22609926, 0.19477386, -0.28068165, 0.25743279, 0.14387387, 0.46697646, -0.03888613, -0.29466462, 0.51632228, 0.25588618, -0.19338748, -0.05782163, 0.44257827, -0.0360183, 0.43000946, 0.02359251, -0.09261312], [0.01798793, 0.173032, -0.36950154, 0.26052982, 0.49140632, -0.23765663, 0.0956775, -0.1828582, 0.03050637, 0.25817271, -0.21744921, -0.00170747, -0.40206563, -0.24366959, 0.33004924, 0.10016601, -0.22428289, -0.28844339, -0.02021162, 0.07589152], [-0.33819643, -0.07563143, -0.29595162, -0.41380345, -0.05175904, -0.44124003, 0.38251391, 0.50477562, -0.52952412, 0.1694208, 0.17715187, -0.17085561, 0.12236067, 0.44087798, 0.14781554, -0.02301917, 0.38397184, -0.44770308, -0.14049748, -0.41641203]], "b": [0.51192253, 0.22157559, -0.10111265, 0.23760422, 0.22862432, -0.21517298, -0.36232288, 0.14143989, -0.04666291, 0.29368645, 0.05549056, 0.39632243]}, {"W": [[0.18879184, 0.34927877, 0.58249358, -0.27890277, 0.27391023, -0.23375917, -0.37522087, 0.14029333, -0.39737421, 0.2494293, 0.13769392, -0.55096357], [0.19914071, -0.17863262, -0.01105008, 0.58065867, -0.14105035, -0.05781279, -0.28298156, 0.34990288, -0.12567865, -0.01582778, 0.16741339, -0.10845628], [0.38943333, -0.41251451, 0.00724846, -0.03135737, -0.48574147, 0.41940074, -0.25206294, -0.52423825, 0.33873656, -0.0595198, -0.44697786, -0.31894398], [-0.15853355, -0.56036676, 0.23148982, -0.30973343, -0.44479161, -0.04708792, -0.45974521, 0.28507206, 0.26484565, 0.23207219, -0.118545, -0.20025635], [-0.2965597, -0.18108708, -0.04527551, -0.062597, -0.39431775, 0.1639806, -0.40557403, 0.12510734, -0.24435078, -0.52069444, 0.01600137, -0.43578022], [-0.59505531, 0.23237355, 0.03108631, 0.6167573, -0.47126194, -0.33301046, 0.09660863, -0.37085223, -0.3080317, -0.18458516, -0.3146944, 0.56777871], [0.1861878, -0.0351258, 0.28685002, -0.05978042, -0.50057132, -0.37943914, -0.23251144, 0.40701716, -0.12176306, 0.15613503, -0.33821854, 0.2000326], [0.2712174, -0.07084413, 0.63115985, -0.07451949, 0.29088282, -0.41059253, -0.22658894, 0.54422723, -0.00463818, 0.54952119, 0.00824562, 0.1223522]], "b": [0.43402176, 0.1168067, -0.47047345, 0.01086101, 0.07749666, 0.35955592, -0.09374829, -0.30008222]}, {"W": [[-0.50079642, -0.36918927, 0.22038754, 0.09403435, -0.21958396, 0.94045629, 0.05795176, -0.56933795]], "b": [-0.7330722]}], "metrics": {"accuracy": 0.9787, "precision": 0.9487, "recall": 0.9737, "f1": 0.961, "cv_mean": 0.946, "cv_std": 0.0056}, "training_info": {"dataset": "Autism Screening on Adults (Kaggle)", "dataset_url": "https://www.kaggle.com/datasets/andrewmvd/autism-screening-on-adults", "total_samples": 704, "train_samples": 563, "test_samples": 141, "n_features": 14, "feature_names": ["A1_Score", "A2_Score", "A3_Score", "A4_Score", "A5_Score", "A6_Score", "A7_Score", "A8_Score", "A9_Score", "A10_Score", "age", "gender", "jaundice", "family_autism"], "epochs": 68, "best_val_score": 0.9647}}